{"w1": [[0.2979477345943451, 0.25812414288520813, 0.42412471771240234, -0.39261114597320557, -0.16371317207813263, 0.46543461084365845, 0.04612965136766434, 0.4525332450866699, 0.22269415855407715, 0.4574880003929138, 0.27098503708839417, 0.14103960990905762, 0.1358504742383957, 0.07508998364210129, -0.11772609502077103, 0.02782840095460415], [0.03637023642659187, 0.41777050495147705, -0.06458388268947601, -0.012494087219238281, -0.07448656111955643, 0.4237726330757141, -0.3665322959423065, 0.06298500299453735, -0.20446065068244934, -0.21901564300060272, 0.380575567483902, -0.22363479435443878, 0.4700089991092682, -0.23868481814861298, -0.3283518850803375, 0.0304618738591671], [-0.24686241149902344, -0.04388543963432312, -0.24201293289661407, -0.17747527360916138, 0.07782728224992752, -0.21129672229290009, 0.0966772511601448, 0.28302302956581116, -0.07065483927726746, 0.08076189458370209, 0.08760421723127365, 0.20600436627864838, -0.46484822034835815, -0.4855271875858307, 0.03634538874030113, 0.48331719636917114], [0.27819231152534485, 0.08266372233629227, 0.17731407284736633, 0.09432035684585571, 0.3038295805454254, 0.3230380117893219, -0.2242669016122818, 0.1322818249464035, -0.11992603540420532, 0.011119051836431026, -0.0033216718584299088, 0.13555903732776642, 0.13032139837741852, 0.4370318055152893, -0.20949018001556396, -0.0438387393951416], [0.3413271903991699, -0.1330062747001648, 0.4686201512813568, 0.28490346670150757, 0.4491192698478699, -0.045583564788103104, 0.4496927559375763, 0.1683141142129898, -0.23109599947929382, 0.05056058242917061, -0.43382561206817627, 0.34590238332748413, 0.12812694907188416, 0.3840934932231903, -0.3001537322998047, 0.016390131786465645], [0.2819531261920929, -0.027304112911224365, 0.4465821087360382, -0.46136152744293213, -0.3860510587692261, -0.06501762568950653, -0.032371390610933304, 0.46683990955352783, 0.012773752212524414, 0.043859101831912994, 0.23331031203269958, 0.4791668653488159, -0.08628743886947632, -0.39680352807044983, -0.10521990805864334, 0.349092960357666], [0.29450976848602295, -0.10649432241916656, 0.3974221646785736, -0.2956472337245941, 0.10139203816652298, 0.3708009421825409, 0.4482657015323639, -0.3421468436717987, 0.07783150672912598, 0.23675253987312317, 0.17431525886058807, 0.4650154709815979, -0.14865213632583618, 0.07412614673376083, 0.48470228910446167, 0.2718731760978699], [-0.41991496086120605, -0.40389564633369446, -0.11390505731105804, 0.13305163383483887, -0.44309648871421814, 0.3234499990940094, -0.20985689759254456, -0.37362173199653625, -0.3557223975658417, 0.09421081840991974, 0.12774591147899628, 0.42742782831192017, -0.2519304156303406, -0.41336098313331604, 0.33927932381629944, -0.4121013581752777]], "w2": [[0.1443675011396408, 0.16097134351730347, 0.35659947991371155, -0.07228028774261475, 0.18388672173023224, -0.15670080482959747, -0.5075307488441467, 0.1386466920375824], [0.19219398498535156, 0.33806052803993225, 0.3235523998737335, -0.3308400511741638, -0.42457735538482666, 0.046367380768060684, -0.490327388048172, -0.00846236851066351], [-0.08661353588104248, -0.12117310613393784, -0.3536326289176941, -0.2284010946750641, 0.3151315748691559, -0.11912365257740021, 0.0024475036188960075, -0.001162645872682333], [0.43640148639678955, 0.45553088188171387, -0.23733937740325928, -0.17328396439552307, -0.04440408945083618, -0.1266128122806549, 0.4304302930831909, 0.054594993591308594], [-0.11720012873411179, -0.2768663465976715, -0.3199816048145294, 0.12432204186916351, -0.18316718935966492, -0.3917756676673889, -0.05798863619565964, 0.22804106771945953], [0.05811246857047081, 0.4575033187866211, 0.07046159356832504, 0.17220814526081085, 0.17974336445331573, 0.11139468103647232, -0.007105227094143629, 0.2242226004600525], [-0.20786809921264648, -0.3191518485546112, 0.2531070411205292, -0.17941851913928986, -0.022690514102578163, 0.23860707879066467, 0.19235540926456451, -0.5362755060195923], [-0.141199991106987, -0.2809545695781708, 0.2580444812774658, 0.06777407974004745, -0.1666703075170517, 0.0766100212931633, 0.03773906081914902, 0.0244518481194973], [-0.470348060131073, -0.38185757398605347, 0.2987019419670105, 0.27709829807281494, -0.475969523191452, 0.35901015996932983, -0.13031944632530212, 0.4679498076438904], [0.5169939398765564, 0.043081700801849365, -0.07606836408376694, -0.30127906799316406, -0.41476500034332275, -0.2801420986652374, -0.28430986404418945, -0.3895972967147827], [0.08047420531511307, 0.21005457639694214, 0.12948183715343475, -0.43281298875808716, -0.6846609115600586, -0.11282741278409958, 0.11038541048765182, 0.08518953621387482], [-0.06950806826353073, -0.6987603306770325, -0.1295507252216339, 0.16290269792079926, -0.0650990903377533, 0.2150985151529312, 0.2280454784631729, 0.04066530242562294], [0.018265079706907272, -0.23871442675590515, 0.3253536522388458, 0.1979566216468811, -0.142450749874115, -0.1200069859623909, -0.3389109969139099, 0.11891606450080872], [0.182362899184227, 0.2009778618812561, -0.11414462327957153, -0.07839401811361313, 0.10137047618627548, -0.04173440486192703, -0.36703240871429443, -0.3532993495464325], [-0.44410228729248047, 0.30886659026145935, 0.25063198804855347, -0.2009165734052658, -0.0921369269490242, -0.1154806911945343, -0.04310748353600502, 0.2826816141605377], [0.04481903836131096, 0.3882421553134918, -0.04583935812115669, 0.16290432214736938, -0.17254453897476196, -0.09430085122585297, -0.0186043381690979, -0.2627255320549011]], "b1": [-0.31897151470184326, -0.3566552698612213, -0.04281655326485634, 0.07028692960739136, -0.4168688654899597, -0.2817564904689789, -0.35324811935424805, -0.4305358827114105, 0.468406081199646, -0.2789689600467682, 0.1058623269200325, -0.37593701481819153, -0.38469618558883667, -0.2097306102514267, -0.42142945528030396, -0.20309586822986603], "b2": [-0.16010290384292603, 0.461617648601532, 0.17846383154392242, -0.3558390140533447, 0.2459028959274292, 0.04521748796105385, 0.3978703022003174, -0.44515249133110046]}